<?xml version="1.0"?>
<opencv_storage>
<cascade>
  <stageType>BOOST</stageType>
  <featureType>HAAR</featureType>
  <height>50</height>
  <width>50</width>
  <stageParams>
    <boostType>GAB</boostType>
    <minHitRate>9.9500000476837158e-01</minHitRate>
    <maxFalseAlarm>5.0000000000000000e-01</maxFalseAlarm>
    <weightTrimRate>9.4999999999999996e-01</weightTrimRate>
    <maxDepth>1</maxDepth>
    <maxWeakCount>100</maxWeakCount></stageParams>
  <featureParams>
    <maxCatCount>0</maxCatCount>
    <featSize>1</featSize>
    <mode>BASIC</mode></featureParams>
  <stageNum>4</stageNum>
  <stages>
    <!-- stage 0 -->
    <_>
      <maxWeakCount>8</maxWeakCount>
      <stageThreshold>-1.4309158325195312e+00</stageThreshold>
      <weakClassifiers>
        <_>
          <internalNodes>
            0 -1 19 -5.6081514805555344e-02</internalNodes>
          <leafValues>
            8.7027025222778320e-01 -4.5263159275054932e-01</leafValues></_>
        <_>
          <internalNodes>
            0 -1 29 -1.4805195853114128e-02</internalNodes>
          <leafValues>
            6.4444988965988159e-01 -4.0117445588111877e-01</leafValues></_>
        <_>
          <internalNodes>
            0 -1 6 5.1151137799024582e-02</internalNodes>
          <leafValues>
            -2.5482290983200073e-01 7.0876008272171021e-01</leafValues></_>
        <_>
          <internalNodes>
            0 -1 24 -9.6368584781885147e-03</internalNodes>
          <leafValues>
            6.7394226789474487e-01 -2.4008922278881073e-01</leafValues></_>
        <_>
          <internalNodes>
            0 -1 9 -5.2115106955170631e-03</internalNodes>
          <leafValues>
            -6.0717856884002686e-01 2.6611715555191040e-01</leafValues></_>
        <_>
          <internalNodes>
            0 -1 16 -7.8401749487966299e-04</internalNodes>
          <leafValues>
            -8.2725006341934204e-01 1.6566933691501617e-01</leafValues></_>
        <_>
          <internalNodes>
            0 -1 25 -9.6927415579557419e-03</internalNodes>
          <leafValues>
            6.7939680814743042e-01 -2.4327954649925232e-01</leafValues></_>
        <_>
          <internalNodes>
            0 -1 27 1.7012100666761398e-02</internalNodes>
          <leafValues>
            -3.1144040822982788e-01 4.8019114136695862e-01</leafValues></_></weakClassifiers></_>
    <!-- stage 1 -->
    <_>
      <maxWeakCount>9</maxWeakCount>
      <stageThreshold>-1.3265558481216431e+00</stageThreshold>
      <weakClassifiers>
        <_>
          <internalNodes>
            0 -1 21 -8.7453536689281464e-02</internalNodes>
          <leafValues>
            9.2118227481842041e-01 -2.9292929172515869e-01</leafValues></_>
        <_>
          <internalNodes>
            0 -1 12 3.2749898731708527e-02</internalNodes>
          <leafValues>
            -2.4039641022682190e-01 6.4536994695663452e-01</leafValues></_>
        <_>
          <internalNodes>
            0 -1 23 5.8026265352964401e-02</internalNodes>
          <leafValues>
            -2.4192366003990173e-01 6.0828125476837158e-01</leafValues></_>
        <_>
          <internalNodes>
            0 -1 5 -2.8781916946172714e-02</internalNodes>
          <leafValues>
            4.9301338195800781e-01 -3.4305807948112488e-01</leafValues></_>
        <_>
          <internalNodes>
            0 -1 11 -1.7324878135696054e-03</internalNodes>
          <leafValues>
            -7.6317429542541504e-01 2.2497582435607910e-01</leafValues></_>
        <_>
          <internalNodes>
            0 -1 30 -4.0732554043643177e-04</internalNodes>
          <leafValues>
            -7.7369785308837891e-01 1.6077470779418945e-01</leafValues></_>
        <_>
          <internalNodes>
            0 -1 13 -3.6525558680295944e-03</internalNodes>
          <leafValues>
            -7.6580703258514404e-01 1.5634302794933319e-01</leafValues></_>
        <_>
          <internalNodes>
            0 -1 32 -1.0251317871734500e-03</internalNodes>
          <leafValues>
            3.3280134201049805e-01 -4.3248569965362549e-01</leafValues></_>
        <_>
          <internalNodes>
            0 -1 2 -3.2132240012288094e-03</internalNodes>
          <leafValues>
            4.4340762495994568e-01 -3.1785622239112854e-01</leafValues></_></weakClassifiers></_>
    <!-- stage 2 -->
    <_>
      <maxWeakCount>8</maxWeakCount>
      <stageThreshold>-1.1482290029525757e+00</stageThreshold>
      <weakClassifiers>
        <_>
          <internalNodes>
            0 -1 15 -1.2714795768260956e-01</internalNodes>
          <leafValues>
            8.5151517391204834e-01 -3.1190475821495056e-01</leafValues></_>
        <_>
          <internalNodes>
            0 -1 14 3.5899221897125244e-02</internalNodes>
          <leafValues>
            -2.3618015646934509e-01 7.1405953168869019e-01</leafValues></_>
        <_>
          <internalNodes>
            0 -1 0 -1.0092342272400856e-03</internalNodes>
          <leafValues>
            4.6400907635688782e-01 -3.0175983905792236e-01</leafValues></_>
        <_>
          <internalNodes>
            0 -1 1 4.0667410939931870e-03</internalNodes>
          <leafValues>
            -4.7624927759170532e-01 2.8672271966934204e-01</leafValues></_>
        <_>
          <internalNodes>
            0 -1 17 2.9017280321568251e-03</internalNodes>
          <leafValues>
            1.7959207296371460e-01 -8.1336653232574463e-01</leafValues></_>
        <_>
          <internalNodes>
            0 -1 4 -1.3734949752688408e-02</internalNodes>
          <leafValues>
            4.0531376004219055e-01 -3.3499664068222046e-01</leafValues></_>
        <_>
          <internalNodes>
            0 -1 31 -3.8795758155174553e-04</internalNodes>
          <leafValues>
            3.1760969758033752e-01 -4.1667354106903076e-01</leafValues></_>
        <_>
          <internalNodes>
            0 -1 7 -3.3991947770118713e-02</internalNodes>
          <leafValues>
            6.9238752126693726e-01 -2.0029658079147339e-01</leafValues></_></weakClassifiers></_>
    <!-- stage 3 -->
    <_>
      <maxWeakCount>9</maxWeakCount>
      <stageThreshold>-7.4280345439910889e-01</stageThreshold>
      <weakClassifiers>
        <_>
          <internalNodes>
            0 -1 8 5.7502731680870056e-02</internalNodes>
          <leafValues>
            -3.5914552211761475e-01 7.5765645503997803e-01</leafValues></_>
        <_>
          <internalNodes>
            0 -1 18 -1.7665085196495056e-01</internalNodes>
          <leafValues>
            9.2710971832275391e-01 -1.1608372628688812e-01</leafValues></_>
        <_>
          <internalNodes>
            0 -1 20 -8.5676449816673994e-04</internalNodes>
          <leafValues>
            -7.2552174329757690e-01 2.8015998005867004e-01</leafValues></_>
        <_>
          <internalNodes>
            0 -1 3 -1.3357934076339006e-03</internalNodes>
          <leafValues>
            4.1456231474876404e-01 -3.4887599945068359e-01</leafValues></_>
        <_>
          <internalNodes>
            0 -1 22 1.1419759131968021e-02</internalNodes>
          <leafValues>
            -2.8574675321578979e-01 5.9401983022689819e-01</leafValues></_>
        <_>
          <internalNodes>
            0 -1 28 -2.6942610275000334e-03</internalNodes>
          <leafValues>
            -7.9983317852020264e-01 2.1289592981338501e-01</leafValues></_>
        <_>
          <internalNodes>
            0 -1 33 -2.0191702060401440e-04</internalNodes>
          <leafValues>
            -6.7023378610610962e-01 1.7714227735996246e-01</leafValues></_>
        <_>
          <internalNodes>
            0 -1 26 1.5883285552263260e-02</internalNodes>
          <leafValues>
            -2.2786939144134521e-01 6.2395197153091431e-01</leafValues></_>
        <_>
          <internalNodes>
            0 -1 10 -1.2968310620635748e-03</internalNodes>
          <leafValues>
            -7.9615926742553711e-01 1.7401054501533508e-01</leafValues></_></weakClassifiers></_></stages>
  <features>
    <_>
      <rects>
        <_>
          0 1 4 48 -1.</_>
        <_>
          2 1 2 48 2.</_></rects>
      <tilted>0</tilted></_>
    <_>
      <rects>
        <_>
          0 12 44 6 -1.</_>
        <_>
          0 15 44 3 2.</_></rects>
      <tilted>0</tilted></_>
    <_>
      <rects>
        <_>
          0 37 8 10 -1.</_>
        <_>
          0 42 8 5 2.</_></rects>
      <tilted>0</tilted></_>
    <_>
      <rects>
        <_>
          1 28 6 12 -1.</_>
        <_>
          4 28 3 12 2.</_></rects>
      <tilted>0</tilted></_>
    <_>
      <rects>
        <_>
          1 29 14 18 -1.</_>
        <_>
          1 38 14 9 2.</_></rects>
      <tilted>0</tilted></_>
    <_>
      <rects>
        <_>
          2 2 45 9 -1.</_>
        <_>
          17 2 15 9 3.</_></rects>
      <tilted>0</tilted></_>
    <_>
      <rects>
        <_>
          2 19 27 12 -1.</_>
        <_>
          11 19 9 12 3.</_></rects>
      <tilted>0</tilted></_>
    <_>
      <rects>
        <_>
          5 11 18 15 -1.</_>
        <_>
          14 11 9 15 2.</_></rects>
      <tilted>0</tilted></_>
    <_>
      <rects>
        <_>
          6 14 21 20 -1.</_>
        <_>
          13 14 7 20 3.</_></rects>
      <tilted>0</tilted></_>
    <_>
      <rects>
        <_>
          6 16 38 15 -1.</_>
        <_>
          6 21 38 5 3.</_></rects>
      <tilted>0</tilted></_>
    <_>
      <rects>
        <_>
          7 20 7 6 -1.</_>
        <_>
          7 22 7 2 3.</_></rects>
      <tilted>0</tilted></_>
    <_>
      <rects>
        <_>
          7 21 18 6 -1.</_>
        <_>
          7 23 18 2 3.</_></rects>
      <tilted>0</tilted></_>
    <_>
      <rects>
        <_>
          7 24 21 12 -1.</_>
        <_>
          14 24 7 12 3.</_></rects>
      <tilted>0</tilted></_>
    <_>
      <rects>
        <_>
          8 26 27 6 -1.</_>
        <_>
          8 28 27 2 3.</_></rects>
      <tilted>0</tilted></_>
    <_>
      <rects>
        <_>
          10 19 18 14 -1.</_>
        <_>
          16 19 6 14 3.</_></rects>
      <tilted>0</tilted></_>
    <_>
      <rects>
        <_>
          13 1 24 36 -1.</_>
        <_>
          21 1 8 36 3.</_></rects>
      <tilted>0</tilted></_>
    <_>
      <rects>
        <_>
          13 24 4 6 -1.</_>
        <_>
          13 26 4 2 3.</_></rects>
      <tilted>0</tilted></_>
    <_>
      <rects>
        <_>
          13 27 18 6 -1.</_>
        <_>
          13 29 18 2 3.</_></rects>
      <tilted>0</tilted></_>
    <_>
      <rects>
        <_>
          14 6 21 31 -1.</_>
        <_>
          21 6 7 31 3.</_></rects>
      <tilted>0</tilted></_>
    <_>
      <rects>
        <_>
          15 8 21 25 -1.</_>
        <_>
          22 8 7 25 3.</_></rects>
      <tilted>0</tilted></_>
    <_>
      <rects>
        <_>
          15 29 23 3 -1.</_>
        <_>
          15 30 23 1 3.</_></rects>
      <tilted>0</tilted></_>
    <_>
      <rects>
        <_>
          16 8 18 29 -1.</_>
        <_>
          22 8 6 29 3.</_></rects>
      <tilted>0</tilted></_>
    <_>
      <rects>
        <_>
          17 15 12 10 -1.</_>
        <_>
          21 15 4 10 3.</_></rects>
      <tilted>0</tilted></_>
    <_>
      <rects>
        <_>
          22 17 27 12 -1.</_>
        <_>
          31 17 9 12 3.</_></rects>
      <tilted>0</tilted></_>
    <_>
      <rects>
        <_>
          23 0 4 18 -1.</_>
        <_>
          23 6 4 6 3.</_></rects>
      <tilted>0</tilted></_>
    <_>
      <rects>
        <_>
          23 8 24 4 -1.</_>
        <_>
          31 8 8 4 3.</_></rects>
      <tilted>0</tilted></_>
    <_>
      <rects>
        <_>
          23 13 15 9 -1.</_>
        <_>
          28 13 5 9 3.</_></rects>
      <tilted>0</tilted></_>
    <_>
      <rects>
        <_>
          23 24 21 9 -1.</_>
        <_>
          30 24 7 9 3.</_></rects>
      <tilted>0</tilted></_>
    <_>
      <rects>
        <_>
          26 31 14 6 -1.</_>
        <_>
          26 33 14 2 3.</_></rects>
      <tilted>0</tilted></_>
    <_>
      <rects>
        <_>
          31 18 6 32 -1.</_>
        <_>
          31 34 6 16 2.</_></rects>
      <tilted>0</tilted></_>
    <_>
      <rects>
        <_>
          31 30 11 3 -1.</_>
        <_>
          31 31 11 1 3.</_></rects>
      <tilted>0</tilted></_>
    <_>
      <rects>
        <_>
          34 27 6 3 -1.</_>
        <_>
          37 27 3 3 2.</_></rects>
      <tilted>0</tilted></_>
    <_>
      <rects>
        <_>
          35 17 6 8 -1.</_>
        <_>
          38 17 3 8 2.</_></rects>
      <tilted>0</tilted></_>
    <_>
      <rects>
        <_>
          37 27 5 3 -1.</_>
        <_>
          37 28 5 1 3.</_></rects>
      <tilted>0</tilted></_></features></cascade>
</opencv_storage>
