<?xml version="1.0"?>
<opencv_storage>
<stage11>
  <maxWeakCount>13</maxWeakCount>
  <stageThreshold>-8.3163028955459595e-01</stageThreshold>
  <weakClassifiers>
    <_>
      <internalNodes>
        0 -1 507249 1.2773439288139343e-01</internalNodes>
      <leafValues>
        -1.4258372783660889e-01 6.8549621105194092e-01</leafValues></_>
    <_>
      <internalNodes>
        0 -1 2699569 -4.6742626000195742e-04</internalNodes>
      <leafValues>
        4.0533444285392761e-01 -3.2850918173789978e-01</leafValues></_>
    <_>
      <internalNodes>
        0 -1 2260427 4.5678946189582348e-03</internalNodes>
      <leafValues>
        -2.5000134110450745e-01 4.8858761787414551e-01</leafValues></_>
    <_>
      <internalNodes>
        0 -1 1507330 3.3621830516494811e-04</internalNodes>
      <leafValues>
        1.2836141884326935e-01 -6.1851644515991211e-01</leafValues></_>
    <_>
      <internalNodes>
        0 -1 2748947 -5.3375086281448603e-04</internalNodes>
      <leafValues>
        3.2213869690895081e-01 -2.8158536553382874e-01</leafValues></_>
    <_>
      <internalNodes>
        0 -1 1245833 2.0996711100451648e-04</internalNodes>
      <leafValues>
        -3.5520505905151367e-01 2.7945807576179504e-01</leafValues></_>
    <_>
      <internalNodes>
        0 -1 1182253 2.2005226928740740e-03</internalNodes>
      <leafValues>
        1.3620772957801819e-01 -7.1581399440765381e-01</leafValues></_>
    <_>
      <internalNodes>
        0 -1 1376059 2.8299374971538782e-03</internalNodes>
      <leafValues>
        8.8055372238159180e-02 -8.4548121690750122e-01</leafValues></_>
    <_>
      <internalNodes>
        0 -1 732537 6.6977620124816895e-02</internalNodes>
      <leafValues>
        -1.3355129957199097e-01 7.9874205589294434e-01</leafValues></_>
    <_>
      <internalNodes>
        0 -1 1420047 2.1428428590297699e-03</internalNodes>
      <leafValues>
        -2.7288514375686646e-01 3.7409785389900208e-01</leafValues></_>
    <_>
      <internalNodes>
        0 -1 2575278 -5.1704992074519396e-04</internalNodes>
      <leafValues>
        -7.1998995542526245e-01 1.3602262735366821e-01</leafValues></_>
    <_>
      <internalNodes>
        0 -1 2106766 1.8702689558267593e-02</internalNodes>
      <leafValues>
        -1.4557303488254547e-01 8.0291879177093506e-01</leafValues></_>
    <_>
      <internalNodes>
        0 -1 865932 -1.1006671190261841e-01</internalNodes>
      <leafValues>
        -8.1648844480514526e-01 1.4014872908592224e-01</leafValues></_></weakClassifiers></stage11>
</opencv_storage>
