<?xml version="1.0"?>
<opencv_storage>
<stage7>
  <maxWeakCount>11</maxWeakCount>
  <stageThreshold>-8.3201134204864502e-01</stageThreshold>
  <weakClassifiers>
    <_>
      <internalNodes>
        0 -1 840942 7.7786517795175314e-04</internalNodes>
      <leafValues>
        -2.8366762399673462e-01 6.2094765901565552e-01</leafValues></_>
    <_>
      <internalNodes>
        0 -1 1725140 -1.2028247117996216e-01</internalNodes>
      <leafValues>
        8.8215667009353638e-01 -1.8237204849720001e-01</leafValues></_>
    <_>
      <internalNodes>
        0 -1 2106729 -1.0619305074214935e-02</internalNodes>
      <leafValues>
        7.3283529281616211e-01 -1.3300110399723053e-01</leafValues></_>
    <_>
      <internalNodes>
        0 -1 1356690 -8.2619935274124146e-03</internalNodes>
      <leafValues>
        4.2064297199249268e-01 -2.6479864120483398e-01</leafValues></_>
    <_>
      <internalNodes>
        0 -1 2951901 4.8424705164507031e-04</internalNodes>
      <leafValues>
        -2.9656907916069031e-01 4.4320958852767944e-01</leafValues></_>
    <_>
      <internalNodes>
        0 -1 2915281 -5.8197016187477857e-05</internalNodes>
      <leafValues>
        4.6055403351783752e-01 -2.5601372122764587e-01</leafValues></_>
    <_>
      <internalNodes>
        0 -1 1905211 -7.2553125210106373e-04</internalNodes>
      <leafValues>
        -7.0869320631027222e-01 1.5669339895248413e-01</leafValues></_>
    <_>
      <internalNodes>
        0 -1 1944034 -2.0759468316100538e-04</internalNodes>
      <leafValues>
        4.4657897949218750e-01 -2.5394782423973083e-01</leafValues></_>
    <_>
      <internalNodes>
        0 -1 1791042 7.0853112265467644e-03</internalNodes>
      <leafValues>
        -1.8168778717517853e-01 6.1331969499588013e-01</leafValues></_>
    <_>
      <internalNodes>
        0 -1 2552354 3.6466741003096104e-03</internalNodes>
      <leafValues>
        -2.0836733281612396e-01 5.3117656707763672e-01</leafValues></_>
    <_>
      <internalNodes>
        0 -1 2671501 -2.4169342941604555e-04</internalNodes>
      <leafValues>
        3.8265925645828247e-01 -3.4537410736083984e-01</leafValues></_></weakClassifiers></stage7>
</opencv_storage>
