<?xml version="1.0"?>
<opencv_storage>
<stage4>
  <maxWeakCount>10</maxWeakCount>
  <stageThreshold>-9.3916511535644531e-01</stageThreshold>
  <weakClassifiers>
    <_>
      <internalNodes>
        0 -1 1389631 -1.6303698718547821e-01</internalNodes>
      <leafValues>
        8.8021779060363770e-01 -1.9494204223155975e-01</leafValues></_>
    <_>
      <internalNodes>
        0 -1 2623256 -6.1154190916568041e-04</internalNodes>
      <leafValues>
        -7.4110829830169678e-01 2.8899416327476501e-01</leafValues></_>
    <_>
      <internalNodes>
        0 -1 865130 -4.3239301885478199e-04</internalNodes>
      <leafValues>
        3.1051105260848999e-01 -5.0625616312026978e-01</leafValues></_>
    <_>
      <internalNodes>
        0 -1 1547180 2.3969747126102448e-02</internalNodes>
      <leafValues>
        -2.5997698307037354e-01 5.9142684936523438e-01</leafValues></_>
    <_>
      <internalNodes>
        0 -1 2371366 -3.0084287282079458e-03</internalNodes>
      <leafValues>
        -8.4436476230621338e-01 1.6981843113899231e-01</leafValues></_>
    <_>
      <internalNodes>
        0 -1 2104956 2.7317089959979057e-02</internalNodes>
      <leafValues>
        -2.0108300447463989e-01 7.8001827001571655e-01</leafValues></_>
    <_>
      <internalNodes>
        0 -1 2041291 -3.2831810414791107e-02</internalNodes>
      <leafValues>
        8.1039458513259888e-01 -1.7778493463993073e-01</leafValues></_>
    <_>
      <internalNodes>
        0 -1 1612908 -1.1651669628918171e-03</internalNodes>
      <leafValues>
        -8.1122064590454102e-01 2.0341637730598450e-01</leafValues></_>
    <_>
      <internalNodes>
        0 -1 2205224 2.6583846658468246e-02</internalNodes>
      <leafValues>
        -2.5073072314262390e-01 5.4240673780441284e-01</leafValues></_>
    <_>
      <internalNodes>
        0 -1 1243710 1.4443453983403742e-04</internalNodes>
      <leafValues>
        1.8724952638149261e-01 -8.4915161132812500e-01</leafValues></_></weakClassifiers></stage4>
</opencv_storage>
