<?xml version="1.0"?>
<opencv_storage>
<stage3>
  <maxWeakCount>9</maxWeakCount>
  <stageThreshold>-7.4280345439910889e-01</stageThreshold>
  <weakClassifiers>
    <_>
      <internalNodes>
        0 -1 732189 5.7502731680870056e-02</internalNodes>
      <leafValues>
        -3.5914552211761475e-01 7.5765645503997803e-01</leafValues></_>
    <_>
      <internalNodes>
        0 -1 1473954 -1.7665085196495056e-01</internalNodes>
      <leafValues>
        9.2710971832275391e-01 -1.1608372628688812e-01</leafValues></_>
    <_>
      <internalNodes>
        0 -1 1609110 -8.5676449816673994e-04</internalNodes>
      <leafValues>
        -7.2552174329757690e-01 2.8015998005867004e-01</leafValues></_>
    <_>
      <internalNodes>
        0 -1 213638 -1.3357934076339006e-03</internalNodes>
      <leafValues>
        4.1456231474876404e-01 -3.4887599945068359e-01</leafValues></_>
    <_>
      <internalNodes>
        0 -1 1744430 1.1419759131968021e-02</internalNodes>
      <leafValues>
        -2.8574675321578979e-01 5.9401983022689819e-01</leafValues></_>
    <_>
      <internalNodes>
        0 -1 2374045 -2.6942610275000334e-03</internalNodes>
      <leafValues>
        -7.9983317852020264e-01 2.1289592981338501e-01</leafValues></_>
    <_>
      <internalNodes>
        0 -1 2841693 -2.0191702060401440e-04</internalNodes>
      <leafValues>
        -6.7023378610610962e-01 1.7714227735996246e-01</leafValues></_>
    <_>
      <internalNodes>
        0 -1 2168782 1.5883285552263260e-02</internalNodes>
      <leafValues>
        -2.2786939144134521e-01 6.2395197153091431e-01</leafValues></_>
    <_>
      <internalNodes>
        0 -1 851849 -1.2968310620635748e-03</internalNodes>
      <leafValues>
        -7.9615926742553711e-01 1.7401054501533508e-01</leafValues></_></weakClassifiers></stage3>
</opencv_storage>
