<?xml version="1.0"?>
<opencv_storage>
<stage8>
  <maxWeakCount>15</maxWeakCount>
  <stageThreshold>-7.8619509935379028e-01</stageThreshold>
  <weakClassifiers>
    <_>
      <internalNodes>
        0 -1 1641793 -1.5533536672592163e-01</internalNodes>
      <leafValues>
        8.8288289308547974e-01 -7.3248408734798431e-02</leafValues></_>
    <_>
      <internalNodes>
        0 -1 1958589 -5.0686478614807129e-02</internalNodes>
      <leafValues>
        7.7616655826568604e-01 -9.0621091425418854e-02</leafValues></_>
    <_>
      <internalNodes>
        0 -1 1324445 -1.0317599773406982e-01</internalNodes>
      <leafValues>
        9.1353398561477661e-01 -1.1178801953792572e-01</leafValues></_>
    <_>
      <internalNodes>
        0 -1 1344732 7.4021394539158791e-05</internalNodes>
      <leafValues>
        -3.4756660461425781e-01 3.3850455284118652e-01</leafValues></_>
    <_>
      <internalNodes>
        0 -1 1346456 1.5988253289833665e-04</internalNodes>
      <leafValues>
        1.4353770017623901e-01 -7.3584920167922974e-01</leafValues></_>
    <_>
      <internalNodes>
        0 -1 349955 -4.0030498057603836e-03</internalNodes>
      <leafValues>
        4.0406820178031921e-01 -2.4477276206016541e-01</leafValues></_>
    <_>
      <internalNodes>
        0 -1 2170267 1.9413861446082592e-03</internalNodes>
      <leafValues>
        -1.9256447255611420e-01 5.1748156547546387e-01</leafValues></_>
    <_>
      <internalNodes>
        0 -1 84747 -1.7886997666209936e-03</internalNodes>
      <leafValues>
        4.2313975095748901e-01 -2.1867252886295319e-01</leafValues></_>
    <_>
      <internalNodes>
        0 -1 2540819 2.7313823811709881e-03</internalNodes>
      <leafValues>
        -2.0184770226478577e-01 4.3189930915832520e-01</leafValues></_>
    <_>
      <internalNodes>
        0 -1 1925278 -1.4502450358122587e-03</internalNodes>
      <leafValues>
        -8.8892030715942383e-01 1.1292695999145508e-01</leafValues></_>
    <_>
      <internalNodes>
        0 -1 201430 6.8211957812309265e-02</internalNodes>
      <leafValues>
        9.2639774084091187e-02 -7.6284486055374146e-01</leafValues></_>
    <_>
      <internalNodes>
        0 -1 1322268 -7.7777786646038294e-04</internalNodes>
      <leafValues>
        -8.6351066827774048e-01 8.7026700377464294e-02</leafValues></_>
    <_>
      <internalNodes>
        0 -1 856985 -1.7541682720184326e-01</internalNodes>
      <leafValues>
        7.7752655744552612e-01 -1.2456678599119186e-01</leafValues></_>
    <_>
      <internalNodes>
        0 -1 1602181 5.2044219337403774e-03</internalNodes>
      <leafValues>
        -2.6523455977439880e-01 4.2638033628463745e-01</leafValues></_>
    <_>
      <internalNodes>
        0 -1 1438023 -6.1479595024138689e-04</internalNodes>
      <leafValues>
        -6.7126148939132690e-01 1.3806991279125214e-01</leafValues></_></weakClassifiers></stage8>
</opencv_storage>
